{"architecture": "15 \u2192 32 (BN+ReLU+Drop) \u2192 16 (BN+ReLU+Drop) \u2192 8 (ReLU) \u2192 1", "framework": "PyTorch 2.x", "training": {"samples": 33, "features": 14, "epochs": 2000, "optimizer": "Adam (lr=0.005, weight_decay=1e-4)", "scheduler": "CosineAnnealingLR", "loss": "MSELoss"}, "performance": {"train_r2": 0.9932, "train_mae": 0.19, "cv_r2_mean": 0.4829, "cv_r2_std": 0.3002, "cv_folds": [0.10215103626251221, 0.9139521718025208, 0.23229116201400757, 0.7189015746116638, 0.4470409154891968]}, "normalization": {"feature_names": ["median_income", "obesity", "physical_inactivity", "smoking", "uninsured_rate", "svi_score", "food_desert_rate", "park_acres_per_1k", "mental_health_per_10k", "physician_access", "poverty_rate", "depression", "high_blood_pressure", "fair_poor_health"], "X_mean": [73130.546875, 34.848487854003906, 27.969696044921875, 15.23939323425293, 14.130303382873535, 0.5443060994148254, 57.73939514160156, 174.09605407714844, 24.09212303161621, 2.180739402770996, 13.742424011230469, 20.172731399536133, 35.48484802246094, 21.733333587646484], "X_std": [22530.291015625, 5.801364421844482, 7.16309928894043, 4.955188274383545, 3.8264222145080566, 0.2860129773616791, 16.93642234802246, 469.0717468261719, 27.280794143676758, 3.3187472820281982, 8.754981994628906, 0.8931635022163391, 7.530749797821045, 7.127015113830566], "y_mean": 76.10110473632812, "y_std": 3.215062141418457}, "layers": [{"name": "linear_1", "weights": [[0.060712553560733795, 0.21220889687538147, 0.2532133460044861, 0.02773379720747471, -0.2939501702785492, -0.08163812011480331, 0.05318426713347435, 0.18061678111553192, 0.11509803682565689, 0.11578071117401123, 0.29984989762306213, -0.003300284966826439, -0.07716453075408936, -0.019401220604777336], [-0.1026424765586853, 0.31979018449783325, 0.021854067221283913, 0.06399381905794144, -0.13029974699020386, -0.006724945735186338, -0.019391315057873726, -0.061157483607530594, -0.024411439895629883, 0.07498291879892349, 0.10986103862524033, -0.29715684056282043, 0.21465110778808594, 0.0014301314949989319], [-0.20262068510055542, 0.05124328285455704, 0.010356667451560497, 0.07598046958446503, 0.07906018197536469, -0.07991479337215424, 0.2551930248737335, 0.12648169696331024, -0.04083264619112015, -0.07837216556072235, -0.059345703572034836, 0.21869802474975586, -0.351592481136322, 0.12435496598482132], [-0.009659620933234692, -0.21935921907424927, 0.04894745349884033, -0.2040593922138214, -0.08178916573524475, 0.32031720876693726, -0.2785155177116394, -0.09712287783622742, -0.3600050210952759, 0.06425454467535019, 0.16667217016220093, -0.023951826617121696, 0.03399839997291565, -0.19336757063865662], [0.1524839997291565, -0.276734322309494, 0.17637237906455994, -0.013318742625415325, -0.508686363697052, 0.023407910019159317, 0.04684042930603027, -0.059480950236320496, 0.036356739699840546, 0.06438224017620087, 0.00853565614670515, -0.09930713474750519, -0.09490124136209488, 0.16264861822128296], [-0.2688867151737213, 0.066895991563797, 0.04993331804871559, -0.20053337514400482, -0.06104620546102524, 0.07886454463005066, -0.05218000337481499, 0.023769209161400795, -0.2455008625984192, -0.008648969233036041, 0.17883163690567017, 0.0354325957596302, 0.003857236122712493, 0.29240483045578003], [0.1616743952035904, -0.1561439037322998, 0.1397675722837448, -0.16600866615772247, -0.3220532536506653, 0.04183673858642578, -0.09189417213201523, -0.1800014078617096, 0.030323335900902748, 0.04778596758842468, -0.32001805305480957, 0.04468595236539841, -0.08896508067846298, 0.060048963874578476], [-0.0031680199317634106, 0.09456400573253632, 0.10129556804895401, -0.06026530638337135, 0.013574723154306412, 0.10447623580694199, -0.35558632016181946, -0.2941609025001526, -0.23464657366275787, 0.19547288119792938, 0.0009360769181512296, 0.21768608689308167, -0.10220572352409363, -0.14556439220905304], [0.01413252018392086, -0.2909441292285919, 0.056340236216783524, -0.03260378912091255, -0.06174439564347267, -0.13983409106731415, -0.11354320496320724, 0.1361032873392105, 0.06253355741500854, 0.09603842347860336, 0.5552201271057129, -0.09432835876941681, -0.0556638166308403, 0.14117474853992462], [-0.18918316066265106, 0.3901157081127167, -0.027799546718597412, 0.03490718454122543, -0.516165018081665, -0.070241279900074, 0.057223398238420486, 0.05389729142189026, 0.13141757249832153, -0.08093049377202988, 0.06384120136499405, 0.10697600990533829, 0.15704423189163208, 0.1638149470090866], [0.303480863571167, -0.14781208336353302, -0.18891380727291107, -0.1625325083732605, 0.47756657004356384, 0.033032678067684174, -0.08686132729053497, 0.07318393141031265, 0.10922350734472275, 0.039406344294548035, -0.030622415244579315, 0.007532211020588875, 0.009587200358510017, 0.25425687432289124], [-0.05427911877632141, 0.37781715393066406, 0.1966201812028885, -0.05398908257484436, -0.25460824370384216, 0.12299105525016785, 0.07530423253774643, -0.06793127208948135, -0.010574190877377987, 0.1669253557920456, -0.06477178633213043, -0.1524556279182434, 0.13381218910217285, 0.1233493834733963], [0.08539165556430817, -0.1098959669470787, 0.03614248335361481, -0.05507928133010864, 0.047543592751026154, -0.39187759160995483, 0.05490007624030113, -0.057093046605587006, 0.27611449360847473, -0.2809363901615143, -0.12179527431726456, -0.13177114725112915, -0.037536706775426865, 0.15846095979213715], [0.10737911611795425, -0.04712545871734619, -0.2556135356426239, -0.006438334006816149, -0.3869270384311676, -0.03778691589832306, 0.007795756217092276, -0.05973038822412491, 0.11301899701356888, 0.06739718466997147, -0.11581066995859146, 0.10525377094745636, -0.021311938762664795, 0.0016444213688373566], [-0.16713695228099823, 0.2426280379295349, -0.09382835030555725, 0.16357821226119995, -0.38689640164375305, -0.2726527452468872, 0.08073500543832779, -0.01748950220644474, 0.01710244081914425, 0.13699698448181152, -0.21948803961277008, -0.09001296013593674, -0.07416003197431564, 0.0901838168501854], [-0.24390244483947754, -0.10532651841640472, -0.17910559475421906, 0.1753861904144287, 0.10694905370473862, -0.16510450839996338, 0.10198431462049484, 0.08935153484344482, 0.13464459776878357, -0.47175875306129456, 0.01823912188410759, 0.1357397884130478, -0.25047969818115234, 0.048204075545072556], [-0.30663344264030457, -0.25028249621391296, 0.11797759681940079, -0.1133836880326271, -0.11486975848674774, 0.06542780995368958, 0.07549929618835449, 0.18600527942180634, -0.20169027149677277, 0.08332907408475876, 0.34874725341796875, 0.20856541395187378, 0.1724197268486023, 0.22990670800209045], [-0.15920114517211914, 0.2981005609035492, 0.14068789780139923, 0.028415074571967125, -0.3476407825946808, 0.03136862441897392, -0.05632110685110092, 0.26980316638946533, 0.17523090541362762, -0.06089041009545326, -0.026795750483870506, -0.00024084371398203075, 0.43801769614219666, 0.05376515910029411], [-0.29678305983543396, -0.021547773852944374, 0.12052933871746063, -0.11186283826828003, -0.30098849534988403, -0.1890968531370163, 0.1310427039861679, 0.06574954092502594, -0.11908435821533203, 0.05692986771464348, 0.3041848838329315, 0.10136373341083527, 0.2616550624370575, 0.22572264075279236], [0.38989803194999695, 0.032574377954006195, -0.09414413571357727, 0.03385629132390022, 0.02414100058376789, 0.3381340205669403, 0.061146657913923264, -0.12776945531368256, -0.1273120790719986, 0.2812632918357849, -0.015610369853675365, 0.16089141368865967, -0.12094849348068237, 0.15048731863498688], [0.06732717901468277, 0.1900961846113205, -0.16552509367465973, 0.12308431416749954, -0.2551681399345398, -0.43152907490730286, 0.06454944610595703, -0.21471859514713287, -0.020451437681913376, 0.09872215986251831, -0.054001275449991226, 0.009325302205979824, 0.08452384918928146, -0.12080409377813339], [0.4316208064556122, -0.32347336411476135, 0.10478110611438751, -0.06340020149946213, 0.26898282766342163, 0.23292727768421173, 0.040491096675395966, 0.05627375468611717, -0.015419104136526585, -0.16789130866527557, 0.1580117642879486, 0.22026443481445312, -0.06034761294722557, 0.08519472926855087], [-0.19948099553585052, 0.287483811378479, 0.1929931938648224, 0.024712374433875084, -0.22970923781394958, -0.009903941303491592, 0.0707455649971962, 0.14003145694732666, 0.01937386579811573, 0.06972188502550125, 0.2318602055311203, -0.3042706549167633, 0.08566545695066452, 0.10407844930887222], [-0.13132622838020325, 0.20694638788700104, 0.14533200860023499, 0.18535859882831573, 0.06262584030628204, -0.1055402159690857, 0.06731648743152618, -0.09926728904247284, -0.16175170242786407, 0.098185695707798, 0.15181893110275269, -0.29120853543281555, -0.34906795620918274, -0.188099667429924], [-0.30086952447891235, 0.1049806997179985, -0.12491456419229507, -0.05126400664448738, -0.06997255980968475, 0.14268025755882263, 0.14913536608219147, 0.22949235141277313, -0.3221063017845154, -0.23076266050338745, -0.1581636667251587, -0.1536022424697876, 0.09751598536968231, -0.20454151928424835], [0.21799638867378235, 0.2278541922569275, -0.33830496668815613, 0.03160308301448822, 0.2008289396762848, 0.39793750643730164, 0.20319943130016327, -0.024669883772730827, -0.27017447352409363, -0.23537245392799377, -0.0801166519522667, -0.15212254226207733, -0.19194653630256653, 0.049306321889162064], [0.11673727631568909, -0.28422024846076965, -0.17248710989952087, 0.10905518382787704, -0.2956790626049042, 0.06590449064970016, 0.044588033109903336, -0.11367032676935196, -0.0609869509935379, 0.12093876302242279, 0.08725656569004059, -0.16400472819805145, 0.1683725118637085, -0.20323041081428528], [-0.08165736496448517, 0.15153777599334717, 0.10671710222959518, -0.11028049886226654, -0.4727182984352112, -0.27360641956329346, 0.060194436460733414, 0.022697657346725464, 0.07056670635938644, 0.04931582137942314, 0.11558452248573303, 0.07923638075590134, -0.14088290929794312, -0.0638456791639328], [-0.12705102562904358, 0.0037574167363345623, 0.010446861386299133, 0.010191136971116066, -0.36758047342300415, -0.24133796989917755, -0.015305675566196442, -0.050866831094026566, -0.017776206135749817, 0.019161492586135864, 0.036207348108291626, 0.10253766924142838, 0.07250088453292847, -0.21178054809570312], [-0.17484141886234283, -0.2055724859237671, -0.11045213788747787, 0.06905610114336014, 0.2165091186761856, -0.16336818039417267, 0.05507227033376694, -0.004167677368968725, -0.012470657005906105, -0.14658251404762268, -0.012183583341538906, 0.31895044445991516, -0.32549500465393066, 0.10551589727401733], [-0.11034421622753143, 0.15213821828365326, 0.07685095816850662, -0.25277742743492126, 0.06221357360482216, -0.06969842314720154, -0.23343291878700256, 0.17478901147842407, 0.09228620678186417, 0.203649640083313, -0.003286234801635146, -0.16786108911037445, 0.12985622882843018, 0.2609253227710724], [-0.19084015488624573, -0.09012871235609055, -0.05702780559659004, 0.41677409410476685, -0.4963012635707855, -0.21679246425628662, 0.002293972298502922, -0.006500890012830496, -0.006877414416521788, 0.08291035890579224, 0.07798626273870468, 0.022978227585554123, -0.026723165065050125, -0.17908863723278046]], "biases": [1.275237337949875e-07, 9.911011034091644e-08, -5.1534485123738705e-08, 2.1865955091016076e-07, -2.0089524355171307e-07, -3.09405265852547e-08, 1.0045442166983776e-07, 7.245690198942611e-07, -2.509817242923873e-08, -5.757337930845097e-07, 1.208233584293339e-06, 9.04119801248271e-08, -3.2109929293255846e-07, -4.670642965720617e-07, -9.81063635663304e-07, -7.285723881977901e-07, 2.439365403006377e-07, -2.1765715985111456e-07, 4.753288749270723e-07, 5.728090854972834e-07, -3.191649255995799e-08, -4.3892774215237296e-07, -3.997260122901025e-08, -1.1959021151142224e-07, -3.384589888355549e-07, -5.588316298599239e-07, 1.4157190264540986e-07, -2.319514322834948e-07, -3.355431488216709e-08, -2.0271301082175341e-07, -2.1095229385537095e-07, -6.681734703306574e-07]}, {"name": "bn_1", "running_mean": [1.0866019550803685e-07, 1.3771079920843476e-06, -1.1021865020666155e-06, 4.422299753059633e-07, 4.5018845185040846e-07, -2.2704328728195833e-07, -3.563796724392887e-08, -2.9377756050052994e-07, 5.943397241026105e-07, -1.198327026941115e-06, 1.1054661399612087e-06, 6.377869681273296e-07, 3.493073563731741e-07, -9.501733302386128e-07, -5.975635986033012e-07, -1.3139012935425853e-06, -5.731693590860232e-07, -2.881028819956555e-07, 9.458695870989686e-08, -2.804090968311357e-07, -8.640401460979774e-08, -1.3939232985649141e-06, 1.3106480309943436e-06, 1.2133928066759836e-06, 3.323684438782948e-07, -1.0918750348309914e-07, 1.0730432222771924e-06, -5.932719773227291e-07, -4.162940854257613e-07, -1.605853299224691e-06, 4.826031840821088e-07, -5.74575892642315e-07], "running_var": [0.17857974767684937, 0.6593117713928223, 0.2695901095867157, 0.22323176264762878, 0.4031984806060791, 0.41772326827049255, 0.7751753926277161, 0.20681673288345337, 0.11351829767227173, 0.2758328318595886, 0.09565311670303345, 0.5624551773071289, 0.2852987051010132, 0.838437557220459, 0.13589069247245789, 0.2799844741821289, 0.5040584206581116, 0.8222097158432007, 0.39352089166641235, 0.128447487950325, 0.4302937984466553, 0.10992233455181122, 0.9494491815567017, 0.20632576942443848, 0.38962242007255554, 0.3192465901374817, 0.5271823406219482, 0.32128486037254333, 0.3084792494773865, 0.4241001605987549, 0.3908402919769287, 0.1544521152973175], "weight": [0.8897102475166321, 0.9220927357673645, 0.8356223106384277, 0.74709153175354, 0.8479027152061462, 0.8350802063941956, 0.7925084233283997, 0.9222336411476135, 0.8451817035675049, 0.9464499950408936, 1.0277454853057861, 0.8671137094497681, 0.7943068742752075, 0.7388047575950623, 0.9327651262283325, 0.8569327592849731, 0.7551875114440918, 0.8493039011955261, 0.9414218664169312, 1.2268859148025513, 0.879634439945221, 0.9119554758071899, 0.824521005153656, 0.9050351977348328, 0.8860534429550171, 0.9013730883598328, 0.7748429179191589, 0.8318724036216736, 0.757258951663971, 0.8499222993850708, 0.7642205953598022, 0.8237835168838501], "bias": [-0.15335464477539062, -0.06546905636787415, -0.2058601677417755, -0.4262758791446686, -0.1835699826478958, 0.12921492755413055, -0.1932915300130844, -0.27486830949783325, -0.44068095088005066, 0.06531190872192383, -0.2949117124080658, -0.18945039808750153, -0.353742778301239, -0.2735428810119629, -0.2794678509235382, -0.2111193686723709, -0.18468526005744934, 0.04733649268746376, -0.14113008975982666, -0.1922280639410019, -0.1790199726819992, -0.17878295481204987, -0.20372486114501953, -0.1385238617658615, 0.003312832908704877, -0.045003339648246765, -0.09319113194942474, -0.4767560064792633, -0.48601919412612915, -0.14647826552391052, -0.054954446852207184, -0.6361032724380493], "eps": 1e-05}, {"name": "linear_2", "weights": [[-0.2121204435825348, -0.11328670382499695, 0.011865868233144283, 0.18572412431240082, 0.05480686575174332, -0.08594659715890884, 0.11474619060754776, 0.15962634980678558, -0.04344929754734039, -0.2842344045639038, -0.21282269060611725, -0.15582570433616638, 0.012486383318901062, 0.13914109766483307, 0.07903872430324554, -0.06410755962133408, -0.00497541343793273, -0.18447163701057434, -0.25553199648857117, 0.0473482720553875, 0.16270627081394196, -0.09878312796354294, 0.013764932751655579, -0.06309060007333755, -0.025608019903302193, -0.06992192566394806, 0.1029057502746582, -0.01791793666779995, 0.10895700007677078, 0.013393936678767204, -0.18937495350837708, 0.10746253281831741], [-0.1489880383014679, -0.0981505960226059, 0.03558909893035889, 0.256319522857666, 0.21874096989631653, 0.03862239792943001, 0.10977330058813095, 0.1400683969259262, -0.17485041916370392, -0.17396949231624603, -0.12299606949090958, -0.07969736307859421, -0.098235584795475, 0.034284040331840515, 0.1466502994298935, -0.058413561433553696, -0.06919071823358536, -0.18898357450962067, -0.08900000154972076, 0.03426819294691086, 0.091991126537323, -0.08219599723815918, -0.11516450345516205, 0.04085920378565788, 0.0909411683678627, 0.030973656103014946, 0.19005358219146729, 0.26990753412246704, 0.22410286962985992, -0.0017998075345531106, -0.18470396101474762, 0.11142536252737045], [0.011376210488379002, -0.06748786568641663, 0.017054174095392227, 0.06303931027650833, -0.006838790141046047, -0.08636945486068726, 0.16566990315914154, -0.015916788950562477, 0.056235846132040024, -0.07118046283721924, -0.07159391045570374, 0.08034848421812057, -0.054798733443021774, 0.13805101811885834, 0.27140140533447266, -0.015493975952267647, -0.11373506486415863, -0.09179069101810455, -0.04138178378343582, 0.011973615735769272, 0.19033537805080414, -0.2663288116455078, -0.03328857198357582, -0.07025114446878433, -0.29796934127807617, -0.24944773316383362, 0.045422255992889404, 0.2607230544090271, 0.25924569368362427, 0.04100148379802704, 0.02445976249873638, 0.3393663763999939], [0.09276723861694336, -0.09249808639287949, -0.06948534399271011, 0.03160808980464935, -0.037814971059560776, -0.17829608917236328, 0.07161427289247513, -0.04090447723865509, 0.1668008416891098, -0.04472135752439499, -0.011316920630633831, 0.02695787325501442, 0.13603267073631287, 0.31044623255729675, 0.0476105734705925, -0.1051926389336586, -0.1710672229528427, -0.07536947727203369, -0.06279395520687103, 0.1846265345811844, 0.008510994724929333, -0.23823976516723633, -0.10545504093170166, -0.15651775896549225, -0.2331872135400772, -0.2614116072654724, 0.005545896012336016, 0.15382948517799377, 0.26281678676605225, -0.02150365151464939, 0.03918638825416565, 0.24870525300502777], [-0.1038767546415329, -0.11045967787504196, -0.1739787608385086, -0.03221719712018967, 0.006951142102479935, -0.1900869756937027, 0.16695520281791687, 0.03655693680047989, -0.1168111115694046, -0.09289532899856567, -0.1949985921382904, -0.06745988875627518, 0.11244267970323563, 0.1423248052597046, 0.02786964364349842, -0.22291730344295502, -0.057447221130132675, -0.1550057828426361, 0.025927705690264702, 0.07186977565288544, -0.010118558071553707, -0.29031458497047424, 0.006075250916182995, -0.10150619596242905, -0.03837861865758896, -0.06728718429803848, 0.1182224228978157, 0.1930006444454193, 0.14397314190864563, -0.1609497368335724, -0.0775810107588768, 0.09255567193031311], [-0.17563365399837494, -0.11229385435581207, -0.25015321373939514, 0.06927622854709625, 0.11020965129137039, 0.08148219436407089, 0.13369370996952057, 0.1455911546945572, -0.044199295341968536, -0.22732007503509521, -0.24184799194335938, -0.27188044786453247, 0.0013830491807311773, 0.1522030085325241, 0.04986823722720146, -0.2969166040420532, 0.10702134668827057, -0.2507709860801697, -0.08089910447597504, 0.031341832131147385, -0.07484905421733856, 0.09243153035640717, -0.1745474487543106, 0.007135108578950167, -0.051921091973781586, 0.06077175214886665, 0.08093957602977753, 0.15024584531784058, 0.03238438442349434, -0.3390614688396454, -0.29319998621940613, 0.05919546261429787], [0.10430388897657394, 0.004334351979196072, 0.025362512096762657, -0.19445742666721344, -0.02829708717763424, 0.04364993795752525, -0.04057077318429947, -0.29524391889572144, 0.23285628855228424, 0.03379008173942566, -0.326034277677536, 0.09726042300462723, -0.09178841859102249, -0.11557093262672424, -0.10540277510881424, 0.08080222457647324, 0.14140775799751282, 0.07895131409168243, 0.10510149598121643, -0.1522018015384674, -0.035657960921525955, -0.05218160152435303, 0.1217595785856247, 0.16769255697727203, -0.16758285462856293, -0.2599189281463623, 0.04075292870402336, -0.09593307226896286, -0.0013125981204211712, -0.06305329501628876, 0.09649743884801865, -0.05930040404200554], [0.1697961837053299, -0.15537190437316895, -0.19614900648593903, -0.1018752008676529, 0.2758992612361908, -0.08967398852109909, -0.009997730143368244, 0.01584295555949211, 0.23632465302944183, -0.08365841954946518, 0.005942584481090307, -0.13444162905216217, 0.028560034930706024, -0.011285761371254921, 0.2108212560415268, -0.035835862159729004, -0.15330752730369568, -0.04236893355846405, -0.14207865297794342, 0.1430416852235794, 0.11727561801671982, 7.333284884225577e-05, -0.2362820953130722, -0.15106728672981262, -0.014731687493622303, -0.03870338574051857, 0.14837875962257385, 0.0946931391954422, -0.0770208090543747, -0.10279237478971481, 0.046903692185878754, -0.01956130377948284], [-0.05277711898088455, 0.22751300036907196, -0.04857221245765686, 0.07029400765895844, -0.03350991755723953, 0.17520064115524292, 0.014456704258918762, -0.020488180220127106, -0.10072062164545059, -0.06168898567557335, -0.3927821218967438, -0.039000727236270905, 0.061872802674770355, 0.14873436093330383, -0.01145330909639597, -0.020584234967827797, -0.02579137310385704, -0.03731989488005638, -0.1279074251651764, -0.4205501973628998, -0.019422372803092003, -0.2201121300458908, -0.06230611726641655, -0.17894738912582397, -0.3935268819332123, -0.363677978515625, -0.027288973331451416, 0.11470262706279755, 0.07004205137491226, -0.09889385104179382, 0.10990395396947861, 0.04137108474969864], [0.1831808090209961, 0.0587303563952446, 0.055053193122148514, -0.21701745688915253, -0.14833784103393555, -0.04291577637195587, 0.2497113049030304, -0.2041688859462738, 0.11827119439840317, 0.08692903071641922, 0.05075027793645859, 0.123077392578125, 0.22637881338596344, -0.1235378161072731, -0.2361467182636261, 0.061982378363609314, 0.027710380032658577, 0.03789782524108887, 0.1647048145532608, -0.12531329691410065, -0.09822527319192886, 0.10578528791666031, 0.12324580550193787, 0.1723102629184723, -0.05614392086863518, 0.03904135525226593, -0.12177284806966782, -0.2337585985660553, 0.029994787648320198, 0.0526246540248394, -0.1099628135561943, -0.14504016935825348], [-0.19494086503982544, -0.04845245182514191, -0.20408904552459717, 0.11108029633760452, -0.009208672679960728, 0.16968196630477905, -0.07078730314970016, 0.02517680451273918, -0.19967663288116455, -0.0926210954785347, -0.2549208700656891, -0.14927123486995697, 0.06392266601324081, 0.01077436562627554, 0.028727248311042786, -0.2529863715171814, -0.02245747111737728, -0.10930366814136505, -0.06821843981742859, 0.12763987481594086, -0.045399878174066544, -0.049881573766469955, -0.14921508729457855, -0.008437302894890308, -0.1365186721086502, 0.07577253133058548, -0.14823879301548004, 0.022463200613856316, 0.17521362006664276, -0.35017871856689453, -0.2341896891593933, 0.09590369462966919], [0.09534239023923874, 0.11627963185310364, 0.007890300825238228, -0.18455885350704193, 0.03267780318856239, 0.08653628826141357, -0.12117455899715424, 0.08766467124223709, 0.20967251062393188, 0.11244253069162369, 0.041698068380355835, 0.08668196201324463, -0.07812537252902985, -0.08482610434293747, -0.13809259235858917, 0.04850310832262039, 0.10880853980779648, 0.04387486353516579, 0.20171529054641724, -0.03086608089506626, 0.09537264704704285, -0.03288644552230835, 0.1521114706993103, 0.1460510939359665, -0.05153781175613403, -0.12176434695720673, 0.09996828436851501, -0.07245635986328125, -0.047786109149456024, -0.03759372979402542, 0.05896759778261185, 0.04026222229003906], [-0.05276894569396973, 0.008728680200874805, -0.12406676262617111, -0.007387066259980202, 0.047142256051301956, -0.08756118267774582, 0.07376490533351898, 0.02587944082915783, 0.009668536484241486, -0.07026048004627228, -0.21690453588962555, -0.028677117079496384, 0.02661525085568428, 0.0024864410515874624, 0.03451574593782425, -0.23146486282348633, -0.13364289700984955, -0.1367366909980774, -0.036114297807216644, -0.49493053555488586, 0.0903923511505127, -0.28192707896232605, 0.04416374862194061, 0.0130268270149827, -0.049763988703489304, 0.03537203371524811, -0.01809835433959961, 0.05349250137805939, 0.14854642748832703, -0.12497580051422119, -0.13245528936386108, 0.06680863350629807], [-0.044315025210380554, -0.05165570229291916, -0.23369814455509186, 0.07189106941223145, 0.04889781400561333, -0.03722752630710602, 0.05085344240069389, 0.03010968677699566, 0.032957371324300766, -0.04496880993247032, -0.061140719801187515, -0.05205573886632919, 0.07644786685705185, -0.013675195164978504, -0.008925333619117737, -0.1782243698835373, -0.0771784707903862, 0.11388850212097168, -0.1261732429265976, -0.5352208018302917, 0.022964145988225937, -0.10939212143421173, -0.14034923911094666, -0.07981718331575394, 0.008756035938858986, -0.2051573097705841, 0.04625273868441582, 0.07793927192687988, 0.02514524571597576, -0.15571273863315582, -0.00514339841902256, 0.1412794142961502], [0.12548431754112244, -0.10335203260183334, -0.09938670694828033, 0.05593244731426239, 0.13578097522258759, -0.2287745624780655, -0.01841658540070057, -0.14786534011363983, 0.11571359634399414, -0.0949874147772789, -0.03229498118162155, -0.11029916256666183, 0.1365070343017578, 0.005293256603181362, 0.14113378524780273, -0.05972521752119064, -0.15534578263759613, -0.09589607268571854, -0.0379796102643013, -0.01755146123468876, 0.1556742936372757, -0.04019743949174881, -0.05639322102069855, -0.16015169024467468, -0.006210499908775091, -0.03691661357879639, 0.18065592646598816, 0.007396249566227198, 0.16262666881084442, -0.09109529107809067, -0.0015287925489246845, 0.27903640270233154], [-0.013486235402524471, -0.19745022058486938, -0.18148960173130035, 0.05069349333643913, 0.30047163367271423, -0.07601026445627213, 0.16038405895233154, -0.1798640787601471, 0.03039351850748062, -0.11812982708215714, -0.0889446884393692, -0.236314594745636, 0.18862153589725494, 0.016896476969122887, 0.06683202087879181, -0.07312866300344467, -0.0661826953291893, -0.0908321961760521, -0.18533551692962646, 0.09122873842716217, 0.13936303555965424, -0.0074830385856330395, 0.007583637721836567, -0.16684198379516602, 0.03274265304207802, -0.06519677489995956, 0.19133101403713226, 0.10309502482414246, 0.07944732159376144, -0.1346263438463211, -0.09428388625383377, 0.10681135952472687]], "biases": [3.4362994938419433e-07, -1.0425268328617676e-06, 5.689066995273606e-08, 8.756262559472816e-08, 1.2322975635470357e-06, -2.6416631726533524e-07, 4.372906516891817e-07, -1.8601878082336043e-07, -2.3249702962857555e-07, 1.0474287819306483e-06, 4.934645403409377e-07, 3.629971274676791e-07, 3.941275963370572e-07, -6.041451001692622e-07, 4.1171119846694637e-07, -7.162529414017627e-07]}, {"name": "bn_2", "running_mean": [-0.3725147247314453, -0.06261220574378967, -0.13845059275627136, -0.25444260239601135, -0.4344868063926697, -0.4907195270061493, -0.1453910917043686, -0.07702035456895828, -0.573607861995697, 0.08851470053195953, -0.5250325202941895, 0.2901149392127991, -0.5185480713844299, -0.46737387776374817, -0.17005962133407593, -0.2195834070444107], "running_var": [1.0419822931289673, 0.7861384153366089, 0.5051110982894897, 0.5034834742546082, 0.6367945075035095, 0.9804540872573853, 0.6080600023269653, 0.5544092655181885, 0.32631006836891174, 0.5160305500030518, 0.5477023124694824, 0.5830610394477844, 0.4462549686431885, 0.43333765864372253, 0.5053313374519348, 0.9408190846443176], "weight": [1.0098369121551514, 1.0875678062438965, 1.0627648830413818, 1.057516098022461, 0.9158908724784851, 1.0304404497146606, 1.1623320579528809, 1.1111581325531006, 0.9537478089332581, 1.0203179121017456, 0.9303102493286133, 1.0284358263015747, 0.8976166248321533, 0.9467434883117676, 1.039257287979126, 1.028416633605957], "bias": [-0.1560070514678955, -0.0643397867679596, 0.0013202407862991095, -0.043314553797245026, -0.25541841983795166, -0.16606976091861725, 0.04669783264398575, 0.1306489109992981, -0.2747918963432312, -0.17645730078220367, -0.12723739445209503, -0.05983829125761986, -0.35254794359207153, -0.1512446254491806, 0.028485499322414398, -0.017134716734290123], "eps": 1e-05}, {"name": "linear_3", "weights": [[-0.44111642241477966, -0.446880966424942, -0.3907564878463745, -0.4592288136482239, -0.2668781578540802, -0.25293824076652527, 0.21575762331485748, -0.5043891072273254, 0.20998568832874298, -0.02607978694140911, -0.21167340874671936, 0.0876079723238945, -0.09702696651220322, -0.1895529329776764, -0.36615225672721863, -0.3508667051792145], [-0.14812597632408142, -0.1132245659828186, -0.20711594820022583, -0.31496354937553406, -0.24210454523563385, -0.010928298346698284, -0.6712436079978943, -0.2822622060775757, 0.1605505496263504, 0.2866441607475281, 0.07297638803720474, 0.31475701928138733, -0.03942357748746872, 0.10798411071300507, -0.4517766535282135, -0.2760629951953888], [-0.4113847315311432, -0.43528884649276733, -0.2413455992937088, -0.0184327345341444, 0.03336111828684807, -0.2760990560054779, 0.07532118260860443, -0.1982143372297287, -0.04058336094021797, 0.13777413964271545, -0.08510468900203705, -0.08290160447359085, 0.011908194050192833, -0.24124643206596375, -0.48716092109680176, -0.5196101665496826], [0.024628814309835434, 0.16465385258197784, -0.22028996050357819, -0.18270890414714813, -0.23476769030094147, 0.25942137837409973, -0.1746903657913208, -0.1857653260231018, 0.004252274986356497, 0.08613413572311401, 0.23897475004196167, -0.139884352684021, -0.031773731112480164, 0.09297884255647659, -0.19317562878131866, -0.15859326720237732], [-0.572159469127655, -0.5971593856811523, -0.19938118755817413, 0.281919002532959, -0.3493214249610901, -0.268281489610672, 0.3712836802005768, 0.2228216528892517, 0.11375261098146439, -0.11625832319259644, -0.12188439071178436, -0.08377313613891602, -0.23869162797927856, 0.034384772181510925, -0.12186282873153687, -0.25700777769088745], [0.10994867235422134, 0.13571473956108093, -0.26003319025039673, 0.13678298890590668, -0.0015593644930049777, 0.15902145206928253, -0.07422319799661636, -0.18045857548713684, 0.15213026106357574, -0.5076659321784973, -0.12939505279064178, -0.21048320829868317, 0.2224818468093872, 0.08149848878383636, -0.2394915074110031, 0.026507815346121788], [-0.17624881863594055, -0.2753692865371704, 0.232417494058609, 0.10347742587327957, 0.1415901929140091, 0.26612037420272827, -0.0898667573928833, -0.013428119011223316, 0.23879148066043854, -0.3317561447620392, 0.1500055491924286, -0.11289175599813461, -0.03333654999732971, -0.009133466519415379, 0.11951011419296265, 0.07798969745635986], [0.17306464910507202, 0.12522703409194946, 0.2082173228263855, 0.06573328375816345, 0.2262154370546341, 0.0655498132109642, -0.16708128154277802, 0.20278996229171753, 0.18036220967769623, -0.25601065158843994, 0.3111652135848999, -0.25601664185523987, 0.19548551738262177, 0.22190028429031372, 0.219524085521698, 0.10414094477891922]], "biases": [0.5851055979728699, 0.22531525790691376, 0.49231839179992676, -0.13739192485809326, 0.5248653292655945, 0.3994620740413666, 0.21417401731014252, 0.6492849588394165]}, {"name": "linear_4", "weights": [[-0.5941084027290344, -0.5065076351165771, -0.32809898257255554, -0.4020000100135803, -0.3459489047527313, 0.3357783257961273, 0.12755699455738068, 0.4563312530517578]], "biases": [-0.28876209259033203]}], "predictions": {"32202": {"actual": 73.1, "predicted": 73.3, "error": 0.25}, "32204": {"actual": 75.5, "predicted": 75.7, "error": 0.19}, "32205": {"actual": 74.2, "predicted": 74.0, "error": 0.16}, "32206": {"actual": 70.7, "predicted": 71.1, "error": 0.37}, "32207": {"actual": 76.1, "predicted": 76.1, "error": 0.05}, "32208": {"actual": 70.8, "predicted": 71.2, "error": 0.34}, "32209": {"actual": 68.7, "predicted": 69.5, "error": 0.8}, "32210": {"actual": 74.9, "predicted": 74.8, "error": 0.1}, "32211": {"actual": 75.3, "predicted": 75.2, "error": 0.13}, "32212": {"actual": 77.2, "predicted": 77.2, "error": 0.0}, "32216": {"actual": 77.2, "predicted": 77.2, "error": 0.0}, "32217": {"actual": 77.8, "predicted": 77.7, "error": 0.1}, "32223": {"actual": 80.7, "predicted": 80.4, "error": 0.31}, "32254": {"actual": 70.6, "predicted": 71.1, "error": 0.43}, "32256": {"actual": 79.5, "predicted": 79.3, "error": 0.14}, "32257": {"actual": 78.5, "predicted": 78.4, "error": 0.06}, "32258": {"actual": 80.2, "predicted": 79.8, "error": 0.37}, "32266": {"actual": 82.9, "predicted": 82.4, "error": 0.51}, "32277": {"actual": 76.8, "predicted": 76.7, "error": 0.1}, "32218": {"actual": 74.6, "predicted": 74.6, "error": 0.05}, "32219": {"actual": 74.3, "predicted": 74.2, "error": 0.07}, "32220": {"actual": 73.2, "predicted": 73.3, "error": 0.16}, "32221": {"actual": 77.5, "predicted": 77.6, "error": 0.04}, "32222": {"actual": 78.3, "predicted": 78.3, "error": 0.03}, "32224": {"actual": 80.9, "predicted": 80.3, "error": 0.6}, "32225": {"actual": 79.1, "predicted": 79.0, "error": 0.1}, "32226": {"actual": 76.4, "predicted": 76.4, "error": 0.0}, "32227": {"actual": 72.7, "predicted": 72.8, "error": 0.1}, "32233": {"actual": 77.0, "predicted": 77.1, "error": 0.08}, "32234": {"actual": 74.7, "predicted": 74.7, "error": 0.06}, "32244": {"actual": 75.6, "predicted": 75.4, "error": 0.16}, "32246": {"actual": 77.2, "predicted": 77.3, "error": 0.18}, "32250": {"actual": 79.0, "predicted": 78.8, "error": 0.24}}}